%YAML:1.0
---
opencv_ml_em:
   format: 3
   training_params:
      nclusters: 3
      cov_mat_type: spherical
      epsilon: 1.0000000000000001e-01
      iterations: 300
   weights: !!opencv-matrix
      rows: 1
      cols: 3
      dt: d
      data: [ 3.7264383242157317e-01, 5.5491371570203263e-01,
          7.2442451876393754e-02 ]
   means: !!opencv-matrix
      rows: 3
      cols: 3
      dt: d
      data: [ 1.8357719737660841e+02, 1.9569569298481747e+02,
          1.7943387237577397e+02, 1.2072351000040686e+02,
          1.1277136010189119e+02, 1.0797211657386615e+02,
          3.9637587312676615e+01, 1.7467859630606418e+02,
          1.5193730847078410e+02 ]
   covs:
      - !!opencv-matrix
         rows: 3
         cols: 3
         dt: d
         data: [ 2.5815939065968826e+02, 0., 0., 0.,
             2.5815939065968826e+02, 0., 0., 0., 2.5815939065968826e+02 ]
      - !!opencv-matrix
         rows: 3
         cols: 3
         dt: d
         data: [ 6.2079430823330779e+02, 0., 0., 0.,
             6.2079430823330779e+02, 0., 0., 0., 6.2079430823330779e+02 ]
      - !!opencv-matrix
         rows: 3
         cols: 3
         dt: d
         data: [ 9.4659309311927331e+01, 0., 0., 0.,
             9.4659309311927331e+01, 0., 0., 0., 9.4659309311927331e+01 ]
