%YAML:1.0
---
opencv_ml_em:
   format: 3
   training_params:
      nclusters: 3
      cov_mat_type: spherical
      epsilon: 1.0000000000000001e-01
      iterations: 300
   weights: !!opencv-matrix
      rows: 1
      cols: 3
      dt: d
      data: [ 4.5115591248338838e-01, 4.6594549557472698e-01,
          8.2898591941884370e-02 ]
   means: !!opencv-matrix
      rows: 3
      cols: 3
      dt: d
      data: [ 2.0329561644377762e+02, 2.1448968422654062e+02,
          1.9863549291766762e+02, 1.1834614389793731e+02,
          9.6365777257803998e+01, 9.3929748368770703e+01,
          3.6695061151045238e+01, 1.5564768455572542e+02,
          1.3264961989819014e+02 ]
   covs:
      - !!opencv-matrix
         rows: 3
         cols: 3
         dt: d
         data: [ 1.8717841585787079e+02, 0., 0., 0.,
             1.8717841585787079e+02, 0., 0., 0., 1.8717841585787079e+02 ]
      - !!opencv-matrix
         rows: 3
         cols: 3
         dt: d
         data: [ 2.2314335832143414e+02, 0., 0., 0.,
             2.2314335832143414e+02, 0., 0., 0., 2.2314335832143414e+02 ]
      - !!opencv-matrix
         rows: 3
         cols: 3
         dt: d
         data: [ 1.7081186209512541e+02, 0., 0., 0.,
             1.7081186209512541e+02, 0., 0., 0., 1.7081186209512541e+02 ]
