%YAML:1.0
---
opencv_ml_svm:
   format: 3
   svmType: C_SVC
   kernel:
      type: RBF
      gamma: 1.
   C: 1.
   term_criteria: { iterations:200 }
   var_count: 40
   class_count: 2
   class_labels: !!opencv-matrix
      rows: 2
      cols: 1
      dt: i
      data: [ -2, 2 ]
   sv_total: 40
   support_vectors:
      - [ 2.64845410e-43, 2.17201262e-43, 3.12489558e-43, 2.10194770e-43,
          5.88545355e-43, 2.08793471e-43, 5.68927177e-43, 2.03188277e-43,
          2.80259693e-44, 2.03188277e-43, 2.80259693e-44, 2.03188277e-43,
          3.57331108e-43, 1.91977890e-43, 2.45227231e-43, 1.12103877e-44,
          2.45227231e-43, 1.12103877e-44, 5.75933669e-43, 2.01786979e-43,
          5.75933669e-43, 2.01786979e-43, 1.68155816e-43, 2.00385680e-43,
          3.76949287e-43, 1.86372696e-43, 1.68155816e-43, 2.00385680e-43,
          3.54528511e-43, 1.86372696e-43, 2.92871379e-43, 1.84971397e-43,
          1.68155816e-43, 2.00385680e-43, 7.00649232e-44, 1.82168800e-43,
          6.02558340e-43, 1.09161150e-42, 4.16185644e-43, 1.80767502e-43 ]
      - [ 3.30706438e-43, 1.03696086e-43, 1.27518160e-43, 6.16571324e-44,
          3.30706438e-43, 1.03696086e-43, 4.76441478e-43, 1.33123354e-43,
          9.66895940e-44, 1.21912966e-43, 1.72359711e-43, 1.63951920e-43,
          2.03188277e-43, 1.56945428e-43, 2.98476573e-43, 1.23314265e-43,
          2.98476573e-43, 1.23314265e-43, 6.61412875e-43, 1.30320757e-43,
          5.56315490e-43, 1.28919459e-43, 4.70836284e-43, 1.33123354e-43,
          2.03188277e-43, 1.56945428e-43, 1.80767502e-43, 1.56945428e-43,
          1.80767502e-43, 1.56945428e-43, 3.64337601e-44, 7.00649232e-44,
          6.08163534e-43, 1.11963747e-42, 2.18602560e-43, 1.55544130e-43,
          3.86758376e-43, 1.27518160e-43, 3.81153182e-43, 1.52741533e-43 ]
      - [ 2.29812948e-43, 1.41531145e-43, 2.52233724e-43, 3.29305139e-43,
          3.78350585e-43, 2.28411650e-43, 5.32493416e-43, 2.27010351e-43,
          6.12367429e-43, 1.80767502e-43, 2.52233724e-43, 3.29305139e-43,
          7.98740125e-44, 2.48029828e-43, 5.68927177e-43, 2.24207754e-43,
          5.87144057e-43, 2.22806456e-43, 5.87144057e-43, 2.22806456e-43,
          2.53635022e-43, 2.46628530e-43, 2.53635022e-43, 2.46628530e-43,
          3.85357078e-43, 1.40129846e-44, 3.85357078e-43, 1.40129846e-44,
          3.85357078e-43, 1.40129846e-44, 2.53635022e-43, 2.46628530e-43,
          3.76949287e-43, 2.22806456e-43, 3.76949287e-43, 2.22806456e-43,
          2.77457096e-43, 2.45227231e-43, 4.76441478e-44, 2.21405157e-43 ]
      - [ 9.24856986e-44, 5.32493416e-43, 3.57331108e-43, 5.46506401e-44,
          6.08163534e-43, 1.11963747e-42, 6.08163534e-43, 1.11963747e-42,
          5.95551847e-43, 1.11823617e-42, 6.10966130e-43, 1.10982838e-42,
          6.08163534e-43, 1.10142059e-42, 5.95551847e-43, 1.10142059e-42,
          6.37590801e-43, 5.29690820e-43, 6.37590801e-43, 5.29690820e-43,
          5.07270044e-43, 7.14662217e-44, 3.51725915e-43, 4.37205121e-43,
          3.51725915e-43, 4.37205121e-43, 3.51725915e-43, 4.03573958e-43,
          3.51725915e-43, 4.03573958e-43, 2.39622037e-43, 3.05483065e-43,
          5.59118087e-43, 2.99877871e-43, 5.59118087e-43, 2.99877871e-43,
          2.92871379e-43, 1.35925951e-43, 2.80259693e-43, 1.21912966e-43 ]
      - [ 5.26888223e-43, 1.17709071e-43, 2.31214247e-43, 4.73638881e-43,
          2.31214247e-43, 4.73638881e-43, 6.67018069e-43, 4.10580450e-43,
          5.26888223e-43, 1.17709071e-43, 2.94272678e-43, 3.82554481e-43,
          2.36819440e-43, 3.55929810e-43, 4.13383047e-43, 1.20511668e-43,
          5.95551847e-43, 8.12753109e-44, 2.36819440e-43, 3.55929810e-43,
          4.13383047e-43, 1.20511668e-43, 4.34402524e-43, 1.12103877e-44,
          5.88545355e-44, 1.28919459e-43, 1.54142831e-44, 2.28411650e-43,
          2.24207754e-44, 2.28411650e-43, 8.96831017e-44, 2.27010351e-43,
          8.96831017e-44, 2.27010351e-43, 8.26766094e-44, 2.27010351e-43,
          8.26766094e-44, 2.27010351e-43, 3.08285662e-44, 2.27010351e-43 ]
      - [ 4.23192136e-43, 2.22806456e-43, 6.19373921e-43, 1.10001929e-42,
          6.50202487e-43, 8.68805048e-43, 1.54142831e-44, 2.66246708e-43,
          6.17972623e-43, 8.82818033e-44, 3.76949287e-43, 5.74532370e-43,
          3.76949287e-43, 5.74532370e-43, 2.49431127e-43, 5.66124580e-43,
          2.49431127e-43, 5.66124580e-43, 5.17079133e-43, 8.30969989e-43,
          1.14906474e-43, 1.30320757e-43, 8.82818033e-44, 1.30320757e-43,
          6.17972623e-43, 8.82818033e-44, 2.32615545e-43, 1.26116862e-43,
          2.31214247e-43, 1.20511668e-43, 2.32615545e-43, 1.26116862e-43,
          1.16307773e-43, 1.20511668e-43, 2.76055797e-43, 4.45612912e-43,
          2.76055797e-43, 4.45612912e-43, 1.16307773e-43, 1.20511668e-43 ]
      - [ 1.79366203e-43, 1.41531145e-43, 6.08163534e-43, 1.11963747e-42,
          5.95551847e-43, 1.11963747e-42, 6.10966130e-43, 1.10982838e-42,
          6.10966130e-43, 1.10982838e-42, 6.19373921e-43, 1.10702579e-42,
          6.08163534e-43, 1.10142059e-42, 5.88545355e-43, 5.42302506e-43,
          2.24207754e-43, 1.09441410e-42, 2.24207754e-43, 1.09441410e-42,
          6.37590801e-43, 5.33894715e-43, 6.48801189e-43, 5.22684327e-43,
          6.48801189e-43, 5.22684327e-43, 3.60133705e-43, 5.11473939e-43,
          3.60133705e-43, 5.11473939e-43, 6.34788204e-43, 8.19759602e-43,
          6.34788204e-43, 8.19759602e-43, 2.24207754e-43, 1.08460501e-42,
          2.24207754e-43, 1.08460501e-42, 3.48923318e-43, 4.54020702e-43 ]
      - [ 5.47907700e-43, 2.48029828e-43, 4.87651866e-43, 6.78228457e-43,
          3.58732407e-43, 2.00385680e-43, 4.87651866e-43, 6.78228457e-43,
          3.83955779e-43, 2.01786979e-43, 2.25609053e-43, 1.77964905e-43,
          2.95673976e-43, 6.72623263e-43, 1.98984382e-43, 8.82818033e-44,
          1.34524653e-43, 1.35925951e-43, 5.12875238e-43, 6.55807681e-43,
          5.12875238e-43, 6.55807681e-43, 1.34524653e-43, 1.35925951e-43,
          1.98984382e-43, 8.40779079e-45, 1.98984382e-43, 8.40779079e-45,
          1.98984382e-43, 8.82818033e-44, 3.41916825e-43, 2.12997367e-43,
          1.62550622e-43, 1.34524653e-43, 3.41916825e-43, 2.12997367e-43,
          3.41916825e-43, 2.12997367e-43, 6.41794697e-43, 2.14398665e-43 ]
      - [ 3.92363570e-43, 5.04467447e-44, 1.37327250e-43, 1.02294788e-43,
          6.06762235e-43, 1.13645305e-42, 6.08163534e-43, 1.11963747e-42,
          6.08163534e-43, 1.11963747e-42, 4.48415509e-44, 7.98740125e-44,
          5.95551847e-43, 1.11963747e-42, 6.10966130e-43, 1.10982838e-42,
          6.08163534e-43, 1.10142059e-42, 4.48415509e-44, 7.98740125e-44,
          5.60519386e-45, 1.54142831e-43, 5.74532370e-43, 2.98476573e-43,
          6.38992100e-43, 1.96181785e-44, 6.38992100e-43, 1.96181785e-44,
          5.88545355e-43, 7.51095977e-43, 4.73638881e-43, 1.42932443e-43,
          4.73638881e-43, 1.42932443e-43, 1.68155816e-43, 6.09564832e-43,
          1.68155816e-43, 6.09564832e-43, 2.38220739e-43, 1.41531145e-43 ]
      - [ 2.83062290e-43, 8.95429719e-43, 3.34910333e-43, 2.39622037e-43,
          3.57331108e-43, 2.42424634e-43, 1.20511668e-43, 2.43825933e-43,
          4.07777853e-43, 2.45227231e-43, 4.07777853e-43, 2.45227231e-43,
          6.03959638e-43, 2.57838917e-43, 6.03959638e-43, 2.57838917e-43,
          2.83062290e-43, 2.48029828e-43, 3.68541496e-43, 2.48029828e-43,
          4.41409016e-43, 2.48029828e-43, 1.42932443e-43, 2.48029828e-43,
          7.00649232e-45, 2.00385680e-43, 7.00649232e-45, 2.00385680e-43,
          5.91347952e-43, 2.50832425e-43, 2.77457096e-43, 2.60641514e-43,
          4.77842776e-43, 2.50832425e-43, 4.24593435e-43, 2.52233724e-43,
          4.66632389e-43, 2.56437619e-43, 4.66632389e-43, 2.56437619e-43 ]
      - [ 2.97075274e-43, 6.53005084e-43, 2.97075274e-43, 6.05360937e-43,
          2.97075274e-43, 6.05360937e-43, 3.22298647e-43, 1.89175293e-43,
          2.52233724e-43, 1.21912966e-43, 3.08285662e-43, 1.90576591e-43,
          3.08285662e-43, 1.90576591e-43, 1.86372696e-43, 5.35296013e-43,
          3.50324616e-43, 4.80645373e-43, 3.53127213e-43, 7.00649232e-45,
          3.53127213e-43, 7.00649232e-45, 3.50324616e-43, 4.80645373e-43,
          2.11596068e-43, 1.19110369e-43, 1.07899982e-43, 9.23455688e-43,
          1.07899982e-43, 9.23455688e-43, 4.80645373e-43, 1.90576591e-43,
          2.94272678e-43, 1.90576591e-43, 6.34788204e-43, 1.96181785e-43,
          2.71851902e-43, 9.80908925e-45, 2.71851902e-43, 9.80908925e-45 ]
      - [ 3.65738899e-43, 5.77334967e-43, 2.88667484e-43, 5.46506401e-44,
          3.83955779e-43, 5.18480432e-44, 2.46628530e-43, 6.02558340e-44,
          2.03188277e-43, 5.88545355e-44, 8.40779079e-44, 1.35925951e-43,
          5.38098610e-43, 5.88545355e-44, 2.71851902e-43, 5.74532370e-44,
          2.71851902e-43, 5.74532370e-44, 5.50710296e-43, 5.60519386e-45,
          6.06762235e-43, 1.13645305e-42, 6.06762235e-43, 1.13645305e-42,
          6.02558340e-43, 1.12804526e-42, 6.02558340e-43, 1.12804526e-42,
          6.02558340e-43, 1.12804526e-42, 3.25101244e-43, 7.00649232e-45,
          5.52111595e-43, 5.74532370e-44, 5.52111595e-43, 5.74532370e-44,
          3.97968764e-43, 5.60519386e-44, 8.40779079e-44, 1.35925951e-43 ]
      - [ 6.20775220e-43, 1.13645305e-42, 6.06762235e-43, 3.11088259e-43,
          6.06762235e-43, 3.11088259e-43, 5.03066149e-43, 3.27903841e-43,
          2.97075274e-43, 8.40779079e-45, 2.97075274e-43, 8.40779079e-45,
          4.28797330e-43, 3.04081767e-43, 6.86636248e-44, 2.27010351e-43,
          5.84341460e-43, 3.06884364e-43, 5.84341460e-43, 3.06884364e-43,
          4.28797330e-43, 3.04081767e-43, 5.42302506e-43, 3.04081767e-43,
          4.44211613e-43, 3.04081767e-43, 4.44211613e-43, 3.04081767e-43,
          6.44597294e-44, 1.41531145e-43, 4.63829792e-43, 3.06884364e-43,
          5.28289521e-43, 3.02680468e-43, 4.11981749e-43, 3.02680468e-43,
          4.77842776e-43, 3.08285662e-43, 4.86250567e-43, 3.09686961e-43 ]
      - [ 3.22298647e-44, 2.38220739e-43, 2.78858394e-43, 1.21912966e-43,
          5.70328475e-43, 5.11473939e-43, 4.11981749e-43, 5.39499909e-43,
          6.19373921e-43, 4.20389539e-45, 5.59118087e-43, 5.46506401e-43,
          6.37590801e-43, 7.37082992e-43, 6.37590801e-43, 7.37082992e-43,
          1.12103877e-43, 1.09021021e-42, 5.46506401e-44, 2.21405157e-43,
          2.53635022e-43, 2.28411650e-43, 6.12367429e-43, 8.82818033e-44,
          6.12367429e-43, 8.82818033e-44, 1.12103877e-43, 1.09021021e-42,
          6.19373921e-43, 1.10142059e-42, 5.98354444e-43, 1.10982838e-42,
          6.43195995e-43, 2.80259693e-44, 2.07392173e-43, 4.34402524e-44,
          2.07392173e-43, 4.34402524e-44, 5.60519386e-45, 2.42424634e-43 ]
      - [ 6.40393398e-43, 4.70836284e-43, 6.06762235e-43, 5.24085626e-43,
          2.71851902e-43, 3.36311631e-43, 6.61412875e-43, 5.31092118e-43,
          6.61412875e-43, 5.31092118e-43, 5.18480432e-44, 4.10580450e-43,
          3.71344093e-43, 3.79751884e-43, 2.56437619e-43, 3.71344093e-43,
          2.56437619e-43, 3.71344093e-43, 1.10702579e-43, 3.18094751e-43,
          2.56437619e-43, 3.71344093e-43, 1.73761010e-43, 3.13890856e-43,
          6.02558340e-44, 4.09179152e-43, 6.72623263e-44, 4.06376555e-43,
          2.50832425e-43, 3.72745392e-43, 6.22176518e-43, 5.45105103e-43,
          1.72359711e-43, 3.04081767e-43, 1.14906474e-43, 1.61149323e-43,
          1.72359711e-43, 3.04081767e-43, 1.14906474e-43, 1.61149323e-43 ]
      - [ 1.27518160e-43, 1.20511668e-43, 4.90454463e-44, 5.60519386e-45,
          3.61535004e-43, 5.60519386e-45, 4.90454463e-44, 2.38220739e-44,
          1.33123354e-43, 7.00649232e-45, 3.67140198e-43, 7.00649232e-45,
          3.72745392e-43, 7.00649232e-45, 3.78350585e-43, 8.40779079e-45,
          4.90454463e-44, 2.38220739e-44, 6.44597294e-44, 1.26116862e-44,
          8.26766094e-44, 1.68155816e-44, 7.42688186e-44, 1.26116862e-44,
          6.08163534e-43, 1.11963747e-42, 6.08163534e-43, 1.11963747e-42,
          4.40007718e-43, 1.54142831e-44, 4.45612912e-43, 1.68155816e-44,
          5.95551847e-43, 1.11823617e-42, 6.10966130e-43, 1.10982838e-42,
          4.72237582e-43, 1.96181785e-44, 4.56823299e-43, 2.24207754e-44 ]
      - [ 3.78350585e-44, 1.45735040e-43, 5.64723281e-43, 1.28919459e-43,
          3.86758376e-43, 1.28919459e-43, 6.12367429e-43, 1.58346726e-43,
          3.95166167e-43, 1.13505176e-43, 5.64723281e-43, 1.28919459e-43,
          5.88545355e-44, 1.30320757e-43, 5.60519386e-45, 1.58346726e-43,
          6.19373921e-43, 1.10142059e-42, 5.49308998e-43, 1.28919459e-43,
          5.98354444e-43, 1.10982838e-42, 3.65738899e-43, 1.26116862e-43,
          8.12753109e-44, 7.84727140e-44, 3.95166167e-43, 1.13505176e-43,
          3.95166167e-43, 1.13505176e-43, 8.12753109e-44, 7.84727140e-44,
          3.69942795e-43, 1.16307773e-43, 3.69942795e-43, 1.16307773e-43,
          4.14784345e-43, 1.14906474e-43, 5.21283029e-43, 1.20511668e-43 ]
      - [ 7.00649232e-44, 1.20511668e-43, 4.68033687e-43, 2.80259693e-45,
          4.68033687e-43, 2.80259693e-45, 7.56701171e-44, 1.37327250e-43,
          1.35925951e-43, 8.35173885e-43, 9.24856986e-44, 1.37327250e-43,
          5.99755743e-43, 1.38728548e-43, 2.83062290e-43, 1.02294788e-43,
          1.14906474e-43, 1.41531145e-43, 2.83062290e-43, 1.02294788e-43,
          5.49308998e-43, 1.00893489e-43, 6.06762235e-43, 1.12664397e-42,
          3.02680468e-43, 9.94921910e-44, 3.02680468e-43, 9.94921910e-44,
          3.08285662e-44, 4.20389539e-45, 7.84727140e-44, 1.66754517e-43,
          5.52111595e-43, 1.47136339e-43, 5.52111595e-43, 1.47136339e-43,
          5.74532370e-44, 1.10702579e-43, 3.04081767e-43, 9.38869971e-44 ]
      - [ 1.27518160e-43, 1.20511668e-43, 3.12489558e-43, 4.02172659e-43,
          3.22298647e-43, 4.00771361e-43, 3.08285662e-44, 1.91977890e-43,
          3.22298647e-43, 4.00771361e-43, 2.71851902e-43, 6.23577817e-43,
          1.96181785e-43, 1.68155816e-44, 3.43318124e-43, 2.52233724e-44,
          3.68541496e-43, 4.90454463e-44, 3.47522019e-43, 3.22298647e-44,
          4.44211613e-43, 3.22298647e-44, 3.89560973e-43, 6.16571324e-43,
          4.44211613e-43, 3.22298647e-44, 3.88159675e-43, 6.53005084e-43,
          4.35803822e-43, 3.64337601e-44, 3.27903841e-43, 3.92363570e-44,
          4.80645373e-43, 3.43318124e-43, 3.11088259e-43, 3.50324616e-43,
          3.27903841e-43, 3.92363570e-44, 4.80645373e-43, 3.43318124e-43 ]
      - [ 5.12875238e-43, 4.20389539e-44, 3.64337601e-43, 6.02558340e-44,
          3.64337601e-43, 6.02558340e-44, 3.79751884e-43, 5.74532370e-44,
          2.24207754e-44, 4.03573958e-43, 6.08163534e-43, 1.11963747e-42,
          5.95551847e-43, 1.11823617e-42, 6.10966130e-43, 1.10982838e-42,
          6.08163534e-43, 1.10142059e-42, 2.27010351e-43, 7.11859620e-43,
          2.04589576e-43, 2.22806456e-43, 4.83447970e-43, 8.88423226e-43,
          4.66632389e-43, 4.73638881e-43, 3.78350585e-43, 5.18480432e-44,
          4.66632389e-43, 4.73638881e-43, 1.40129846e-44, 4.38606419e-43,
          3.81153182e-43, 7.00649232e-45, 4.83447970e-43, 8.88423226e-43,
          3.78350585e-43, 5.18480432e-44, 2.38220739e-44, 4.27396032e-43 ]
      - [ 6.19373921e-43, 8.26766094e-44, 6.19373921e-43, 8.26766094e-44,
          6.08163534e-43, 8.68805048e-44, 6.08163534e-43, 8.68805048e-44,
          2.25609053e-43, 9.94921910e-44, 3.05483065e-43, 1.09301280e-43,
          5.32493416e-44, 1.16307773e-43, 2.92871379e-43, 1.14906474e-43,
          1.49938936e-43, 1.20511668e-43, 2.31214247e-43, 1.20511668e-43,
          1.16307773e-43, 1.20511668e-43, 1.16307773e-43, 1.20511668e-43,
          2.91470081e-43, 1.20511668e-43, 1.27518160e-43, 1.20511668e-43,
          1.27518160e-43, 1.20511668e-43, 2.80259693e-43, 1.20511668e-43,
          9.10844002e-44, 1.21912966e-43, 9.10844002e-44, 1.21912966e-43,
          7.28675201e-44, 1.24715563e-43, 7.28675201e-44, 1.24715563e-43 ]
      - [ 6.19373921e-43, 8.26766094e-44, 6.19373921e-43, 8.26766094e-44,
          6.08163534e-43, 8.68805048e-44, 6.08163534e-43, 8.68805048e-44,
          2.07392173e-43, 9.24856986e-44, 5.32493416e-44, 1.16307773e-43,
          2.31214247e-43, 1.20511668e-43, 1.14906474e-43, 1.20511668e-43,
          1.14906474e-43, 1.20511668e-43, 1.49938936e-43, 1.20511668e-43,
          2.91470081e-43, 1.20511668e-43, 1.27518160e-43, 1.20511668e-43,
          1.27518160e-43, 1.20511668e-43, 2.81660991e-43, 1.20511668e-43,
          1.90576591e-43, 1.21912966e-43, 2.32615545e-43, 1.26116862e-43,
          2.94272678e-43, 1.26116862e-43, 2.91470081e-43, 1.28919459e-43,
          2.91470081e-43, 1.28919459e-43, 1.14906474e-43, 1.30320757e-43 ]
      - [ 1.90576591e-43, 1.41531145e-43, 8.12753109e-44, 5.77334967e-43,
          6.08163534e-43, 1.10142059e-42, 6.10966130e-43, 1.10982838e-42,
          5.95551847e-43, 1.11963747e-42, 5.59118087e-43, 8.32371288e-43,
          5.88545355e-43, 6.34788204e-43, 1.93379188e-43, 9.66895940e-44,
          1.93379188e-43, 9.66895940e-44, 5.88545355e-43, 6.34788204e-43,
          3.86758376e-43, 1.91977890e-43, 1.54142831e-43, 9.90718014e-43,
          3.86758376e-43, 1.91977890e-43, 2.42424634e-43, 9.52882956e-44,
          1.28919459e-43, 9.38869971e-44, 4.76441478e-43, 2.73253201e-43,
          6.08163534e-43, 1.11963747e-42, 4.76441478e-43, 2.73253201e-43,
          5.32493416e-44, 1.16307773e-43, 5.32493416e-44, 1.16307773e-43 ]
      - [ 1.16307773e-43, 1.41531145e-43, 4.18988241e-43, 8.81416734e-43,
          4.18988241e-43, 8.81416734e-43, 1.37327250e-43, 1.16728162e-42,
          1.05097385e-43, 6.90840143e-43, 2.50832425e-43, 1.27518160e-43,
          3.46120721e-43, 7.65108962e-43, 3.46120721e-43, 7.65108962e-43,
          6.16571324e-44, 1.30320757e-43, 6.16571324e-44, 1.30320757e-43,
          1.45735040e-43, 9.10844002e-44, 4.06376555e-44, 1.01874398e-42,
          4.06376555e-44, 1.01874398e-42, 3.69942795e-43, 3.64337601e-44,
          3.69942795e-43, 3.64337601e-44, 3.01279170e-43, 6.43195995e-43,
          3.04081767e-43, 8.56193362e-43, 3.06884364e-43, 6.37590801e-43,
          1.98984382e-43, 1.03696086e-43, 3.12489558e-43, 6.06762235e-43 ]
      - [ 1.55544130e-43, 7.42688186e-44, 6.19373921e-43, 8.26766094e-44,
          6.19373921e-43, 8.26766094e-44, 6.17972623e-43, 9.24856986e-44,
          2.25609053e-43, 9.94921910e-44, 6.58610278e-44, 1.09301280e-43,
          6.58610278e-44, 1.09301280e-43, 1.02294788e-43, 1.09301280e-43,
          1.02294788e-43, 1.09301280e-43, 2.69049305e-43, 1.09301280e-43,
          2.69049305e-43, 1.09301280e-43, 3.05483065e-43, 1.09301280e-43,
          3.05483065e-43, 1.09301280e-43, 5.32493416e-44, 1.16307773e-43,
          5.32493416e-44, 1.16307773e-43, 2.31214247e-43, 1.20511668e-43,
          9.52882956e-44, 1.20511668e-43, 1.49938936e-43, 1.20511668e-43,
          2.91470081e-43, 1.20511668e-43, 1.16307773e-43, 1.20511668e-43 ]
      - [ 3.39114228e-43, 1.17989331e-42, 3.39114228e-43, 1.17989331e-42,
          4.06376555e-43, 9.57086851e-43, 6.86636248e-44, 6.44597294e-43,
          5.38098610e-43, 9.40271270e-43, 5.38098610e-43, 9.40271270e-43,
          1.93379188e-43, 7.67911558e-43, 1.28919459e-43, 7.44089485e-43,
          2.71851902e-43, 6.45998592e-43, 5.74532370e-43, 4.06376555e-43,
          5.74532370e-43, 4.06376555e-43, 5.75933669e-43, 3.02680468e-43,
          2.31214247e-43, 1.20511668e-43, 8.82818033e-44, 1.20511668e-43,
          8.82818033e-44, 1.20511668e-43, 1.16307773e-43, 1.20511668e-43,
          1.16307773e-43, 1.20511668e-43, 1.49938936e-43, 1.20511668e-43,
          2.91470081e-43, 1.20511668e-43, 1.27518160e-43, 1.20511668e-43 ]
      - [ 2.22806456e-43, 1.20511668e-43, 4.58224598e-43, 9.66895940e-43,
          2.39622037e-43, 1.17568941e-42, 2.60641514e-43, 9.73902433e-43,
          2.39622037e-43, 1.17568941e-42, 2.78858394e-43, 1.15607123e-42,
          1.02294788e-43, 1.09301280e-43, 1.02294788e-43, 1.09301280e-43,
          1.70958413e-43, 1.14906474e-43, 5.32493416e-44, 1.16307773e-43,
          8.82818033e-44, 1.20511668e-43, 8.82818033e-44, 1.20511668e-43,
          9.52882956e-44, 1.20511668e-43, 2.31214247e-43, 1.20511668e-43,
          1.49938936e-43, 1.20511668e-43, 2.91470081e-43, 1.20511668e-43,
          1.16307773e-43, 1.20511668e-43, 1.16307773e-43, 1.20511668e-43,
          1.27518160e-43, 1.20511668e-43, 1.27518160e-43, 1.20511668e-43 ]
      - [ 6.06762235e-43, 1.12804526e-42, 1.94780487e-43, 5.80137564e-43,
          6.08163534e-43, 8.68805048e-44, 6.08163534e-43, 8.68805048e-44,
          4.30198629e-43, 5.80137564e-43, 3.13890856e-43, 1.01454009e-42,
          1.00893489e-43, 1.09301280e-43, 3.05483065e-43, 1.09301280e-43,
          3.05483065e-43, 1.09301280e-43, 5.32493416e-44, 1.16307773e-43,
          2.31214247e-43, 1.20511668e-43, 7.84727140e-44, 1.20511668e-43,
          1.49938936e-43, 1.20511668e-43, 2.91470081e-43, 1.20511668e-43,
          1.16307773e-43, 1.20511668e-43, 1.16307773e-43, 1.20511668e-43,
          1.27518160e-43, 1.20511668e-43, 1.27518160e-43, 1.20511668e-43,
          2.80259693e-43, 1.20511668e-43, 9.10844002e-44, 1.21912966e-43 ]
      - [ 1.23314265e-43, 1.59748025e-43, 8.40779079e-45, 2.22806456e-43,
          2.38220739e-43, 1.14486085e-42, 6.02558340e-44, 2.32615545e-43,
          2.05990874e-43, 1.12944656e-42, 6.02558340e-44, 2.32615545e-43,
          6.02558340e-44, 2.32615545e-43, 1.34524653e-43, 2.38220739e-43,
          1.34524653e-43, 2.38220739e-43, 1.62550622e-43, 2.42424634e-43,
          1.02294788e-43, 1.10702579e-43, 1.02294788e-43, 1.10702579e-43,
          3.40515527e-43, 5.12875238e-43, 1.49938936e-43, 1.20511668e-43,
          1.49938936e-43, 1.20511668e-43, 2.31214247e-43, 1.20511668e-43,
          7.84727140e-44, 1.20511668e-43, 8.82818033e-44, 1.20511668e-43,
          9.52882956e-44, 1.20511668e-43, 1.14906474e-43, 1.20511668e-43 ]
      - [ 2.56437619e-43, 9.55685553e-43, 5.29690820e-43, 6.83833651e-43,
          7.28675201e-44, 5.19881730e-43, 1.02294788e-43, 1.09301280e-43,
          1.02294788e-43, 1.09301280e-43, 3.05483065e-43, 1.09301280e-43,
          5.32493416e-44, 1.16307773e-43, 5.25486924e-43, 2.90068782e-43,
          2.31214247e-43, 1.20511668e-43, 9.52882956e-44, 1.20511668e-43,
          1.49938936e-43, 1.20511668e-43, 2.91470081e-43, 1.20511668e-43,
          8.82818033e-44, 1.20511668e-43, 1.16307773e-43, 1.20511668e-43,
          1.16307773e-43, 1.20511668e-43, 1.27518160e-43, 1.20511668e-43,
          1.27518160e-43, 1.20511668e-43, 2.80259693e-43, 1.20511668e-43,
          7.98740125e-44, 1.26116862e-43, 7.98740125e-44, 1.26116862e-43 ]
      - [ 6.19373921e-43, 7.00649232e-44, 6.19373921e-43, 8.12753109e-44,
          6.19373921e-43, 8.12753109e-44, 1.07899982e-43, 1.03696086e-43,
          5.32493416e-44, 1.16307773e-43, 2.31214247e-43, 1.20511668e-43,
          1.16307773e-43, 1.20511668e-43, 1.16307773e-43, 1.20511668e-43,
          1.27518160e-43, 1.20511668e-43, 1.27518160e-43, 1.20511668e-43,
          1.49938936e-43, 1.20511668e-43, 2.91470081e-43, 1.20511668e-43,
          2.80259693e-43, 1.20511668e-43, 9.10844002e-44, 1.21912966e-43,
          7.98740125e-44, 1.24715563e-43, 2.94272678e-43, 1.26116862e-43,
          2.32615545e-43, 1.26116862e-43, 2.91470081e-43, 1.28919459e-43,
          2.91470081e-43, 1.28919459e-43, 1.14906474e-43, 1.30320757e-43 ]
      - [ 5.61920684e-43, 1.89175293e-43, 6.08163534e-43, 8.68805048e-44,
          6.08163534e-43, 8.68805048e-44, 2.03188277e-43, 8.82818033e-44,
          6.13768727e-43, 6.75425860e-43, 1.02294788e-43, 1.09301280e-43,
          6.13768727e-43, 6.75425860e-43, 3.92363570e-44, 6.43195995e-43,
          7.84727140e-44, 1.20511668e-43, 1.49938936e-43, 1.20511668e-43,
          2.31214247e-43, 1.19110369e-43, 2.31214247e-43, 1.19110369e-43,
          2.38220739e-43, 1.20511668e-43, 2.38220739e-43, 1.20511668e-43,
          2.38220739e-43, 1.20511668e-43, 1.16307773e-43, 1.20511668e-43,
          1.16307773e-43, 1.20511668e-43, 1.27518160e-43, 1.20511668e-43,
          1.27518160e-43, 1.20511668e-43, 2.91470081e-43, 1.20511668e-43 ]
      - [ 9.52882956e-44, 1.41531145e-43, 6.19373921e-43, 8.12753109e-44,
          6.19373921e-43, 8.12753109e-44, 1.87773994e-43, 9.66895940e-44,
          4.54020702e-43, 3.99370062e-43, 1.02294788e-43, 1.09301280e-43,
          5.32493416e-44, 1.16307773e-43, 2.92871379e-43, 1.16307773e-43,
          7.00649232e-44, 1.20511668e-43, 2.31214247e-43, 1.20511668e-43,
          7.84727140e-44, 1.20511668e-43, 9.52882956e-44, 1.20511668e-43,
          2.91470081e-43, 1.20511668e-43, 1.16307773e-43, 1.20511668e-43,
          1.16307773e-43, 1.20511668e-43, 1.27518160e-43, 1.20511668e-43,
          1.27518160e-43, 1.20511668e-43, 2.80259693e-43, 1.20511668e-43,
          9.10844002e-44, 1.21912966e-43, 1.90576591e-43, 1.21912966e-43 ]
      - [ 5.92749250e-43, 6.44597294e-44, 6.19373921e-43, 8.26766094e-44,
          2.28411650e-43, 8.96831017e-44, 1.87773994e-43, 9.80908925e-44,
          2.25609053e-43, 9.80908925e-44, 1.07899982e-43, 1.03696086e-43,
          1.91977890e-43, 1.05097385e-43, 3.89560973e-43, 1.13505176e-43,
          5.32493416e-44, 1.16307773e-43, 8.82818033e-44, 1.20511668e-43,
          8.82818033e-44, 1.20511668e-43, 2.31214247e-43, 1.20511668e-43,
          1.27518160e-43, 1.20511668e-43, 1.27518160e-43, 1.20511668e-43,
          1.49938936e-43, 1.20511668e-43, 2.91470081e-43, 1.20511668e-43,
          7.84727140e-44, 1.20511668e-43, 9.94921910e-44, 1.21912966e-43,
          1.16307773e-43, 1.20511668e-43, 1.16307773e-43, 1.20511668e-43 ]
      - [ 6.19373921e-43, 8.12753109e-44, 6.19373921e-43, 8.12753109e-44,
          6.19373921e-43, 8.12753109e-44, 1.90576591e-43, 1.05097385e-43,
          1.02294788e-43, 1.09301280e-43, 1.02294788e-43, 1.09301280e-43,
          3.05483065e-43, 1.09301280e-43, 6.30584309e-44, 1.14906474e-43,
          5.32493416e-44, 1.16307773e-43, 7.00649232e-44, 1.20511668e-43,
          2.31214247e-43, 1.20511668e-43, 1.16307773e-43, 1.20511668e-43,
          1.16307773e-43, 1.20511668e-43, 1.27518160e-43, 1.20511668e-43,
          1.27518160e-43, 1.20511668e-43, 1.49938936e-43, 1.20511668e-43,
          2.91470081e-43, 1.20511668e-43, 1.90576591e-43, 1.21912966e-43,
          2.94272678e-43, 1.26116862e-43, 2.94272678e-43, 1.26116862e-43 ]
      - [ 6.19373921e-43, 7.00649232e-44, 6.19373921e-43, 8.12753109e-44,
          6.19373921e-43, 8.12753109e-44, 2.28411650e-43, 8.96831017e-44,
          1.87773994e-43, 9.66895940e-44, 1.42932443e-43, 9.94921910e-44,
          3.05483065e-43, 1.09301280e-43, 4.87651866e-43, 1.14906474e-43,
          5.32493416e-44, 1.16307773e-43, 7.00649232e-44, 1.20511668e-43,
          2.31214247e-43, 1.20511668e-43, 1.49938936e-43, 1.20511668e-43,
          2.91470081e-43, 1.20511668e-43, 1.16307773e-43, 1.20511668e-43,
          1.16307773e-43, 1.20511668e-43, 1.27518160e-43, 1.20511668e-43,
          1.27518160e-43, 1.20511668e-43, 1.90576591e-43, 1.21912966e-43,
          2.32615545e-43, 1.26116862e-43, 2.32615545e-43, 1.26116862e-43 ]
      - [ 6.19373921e-43, 7.00649232e-44, 6.19373921e-43, 8.12753109e-44,
          6.19373921e-43, 8.12753109e-44, 6.19373921e-43, 8.12753109e-44,
          6.08163534e-43, 8.68805048e-44, 6.08163534e-43, 8.68805048e-44,
          6.17972623e-43, 9.38869971e-44, 6.58610278e-44, 1.09301280e-43,
          6.58610278e-44, 1.09301280e-43, 1.02294788e-43, 1.09301280e-43,
          2.31214247e-43, 1.20511668e-43, 1.49938936e-43, 1.20511668e-43,
          2.91470081e-43, 1.20511668e-43, 1.16307773e-43, 1.20511668e-43,
          1.16307773e-43, 1.20511668e-43, 1.27518160e-43, 1.20511668e-43,
          1.27518160e-43, 1.20511668e-43, 2.80259693e-43, 1.20511668e-43,
          8.82818033e-44, 1.21912966e-43, 8.82818033e-44, 1.21912966e-43 ]
      - [ 6.19373921e-43, 8.12753109e-44, 6.19373921e-43, 8.12753109e-44,
          2.07392173e-43, 9.38869971e-44, 2.25609053e-43, 9.94921910e-44,
          2.67648007e-43, 1.05097385e-43, 1.02294788e-43, 1.09301280e-43,
          6.30584309e-44, 1.14906474e-43, 5.32493416e-44, 1.16307773e-43,
          2.31214247e-43, 1.20511668e-43, 7.84727140e-44, 1.20511668e-43,
          7.84727140e-44, 1.20511668e-43, 1.49938936e-43, 1.20511668e-43,
          1.16307773e-43, 1.20511668e-43, 1.16307773e-43, 1.20511668e-43,
          1.27518160e-43, 1.20511668e-43, 1.27518160e-43, 1.20511668e-43,
          2.80259693e-43, 1.20511668e-43, 2.32615545e-43, 1.26116862e-43,
          7.00649232e-44, 1.28919459e-43, 1.14906474e-43, 1.30320757e-43 ]
      - [ 2.76055797e-43, 1.90576591e-43, 2.31214247e-43, 1.03696086e-43,
          2.76055797e-43, 6.51603786e-43, 2.97075274e-43, 6.99247934e-43,
          1.16307773e-43, 1.02294788e-43, 2.21405157e-43, 9.34666076e-43,
          2.32615545e-43, 9.44475165e-43, 6.08163534e-43, 8.68805048e-44,
          6.08163534e-43, 8.68805048e-44, 2.07392173e-43, 9.10844002e-44,
          2.01786979e-43, 9.10844002e-44, 2.90068782e-43, 9.57086851e-43,
          1.87773994e-43, 9.66895940e-44, 4.90454463e-44, 1.16307773e-43,
          4.90454463e-44, 1.16307773e-43, 5.32493416e-44, 1.16307773e-43,
          8.82818033e-44, 1.20511668e-43, 8.82818033e-44, 1.20511668e-43,
          1.49938936e-43, 1.20511668e-43, 1.49938936e-43, 1.20511668e-43 ]
      - [ 2.91470081e-43, 1.04256606e-42, 2.80259693e-43, 5.29690820e-43,
          2.91470081e-43, 8.94028420e-43, 2.91470081e-43, 8.94028420e-43,
          1.27518160e-43, 3.62936302e-43, 1.69557114e-43, 1.02294788e-43,
          1.69557114e-43, 1.02294788e-43, 5.00263552e-43, 5.18480432e-43,
          2.34016844e-43, 3.32107736e-43, 2.29812948e-43, 2.01786979e-43,
          8.68805048e-44, 5.32493416e-44, 5.18480432e-44, 4.13383047e-43,
          2.95673976e-43, 2.35418142e-43, 9.80908925e-44, 1.87773994e-43,
          3.36311631e-43, 1.63951920e-43, 3.36311631e-43, 1.63951920e-43,
          4.33001225e-43, 4.61027195e-43, 2.52233724e-43, 4.66632389e-43,
          2.90068782e-43, 1.28919459e-43, 9.10844002e-44, 1.30320757e-43 ]
   decision_functions:
      -
         sv_count: 40
         rho: 0.
         alpha: [ 1., 1., 1., 1., 1., 1., 1., 1., 1., 1., 1., 1., 1., 1.,
             1., 1., 1., 1., 1., 1., -1., -1., -1., -1., -1., -1., -1.,
             -1., -1., -1., -1., -1., -1., -1., -1., -1., -1., -1., -1.,
             -1. ]
         index: [ 20, 39, 21, 22, 23, 24, 25, 26, 27, 28, 29, 30, 31, 32,
             33, 34, 35, 36, 37, 38, 1, 2, 3, 4, 5, 6, 7, 8, 9, 10, 11,
             12, 13, 14, 15, 16, 17, 18, 19, 0 ]
